{"layerSizes":[18,40,7],"connections":[{"weights":[-0.11419714482964046,0.25939944920455718,-0.2560869787542555,0.1375061150280284,-0.15856472343315498,-0.1189213971912108,0.14102350207436976,-0.13382519912186473,0.12866244230193117,0.07494899088420541,-0.041052303353554527,-0.22576102048340897,-0.04414928834207364,0.011049919960465619,-0.27195394457665447,0.07260819567175488,0.16783689778918754,-0.09495597295047802,-0.8793742414591531,0.1009603510602208,-0.9603141660405377,0.8067102424950485,-0.18424171669230125,-0.21369652225841744,0.08156593978420582,-0.41771364531893509,0.03772183652076094,0.3204799102112629,-0.0958906533748288,-1.0097345345669445,0.6098620802372337,0.5483565979453856,-1.3174759419334868,0.0784502596934316,-0.9052740982691329,0.3971475348602151,-0.008678312523054148,-0.012145991346773119,0.02120271057935299,0.0017650227146678247,-0.01511282839055554,-0.009900531794751987,-0.02072141197667911,0.011005874010437416,0.005768937786949147,-0.006804715417605484,-0.020461575061282778,-0.03620623930526136,0.009505144054160869,0.009844421397242575,-0.002290227120420964,0.011959053433821055,0.0033721614136477744,0.008770466007947087,-0.002742973170748439,0.009844951065833606,0.007812193048846616,-0.029391651513133146,-0.00824302119980962,0.022864153262248854,-0.009087327181242843,0.014624809303053068,0.020744166167931706,-0.004067459677901459,0.011494747971889203,0.015302919913486734,-0.009114778273223099,0.0024888097179579496,0.010059568573231863,-0.026019416736456293,-0.024829912541657525,-0.012686471326832604,0.014794613314568705,-0.0155743319119289,-0.004614725844483077,-0.041446170659816799,0.015136620474295209,-0.031641880092641769,0.0009878339913318958,0.0058597392871937588,-0.00036342605335026835,-0.0008397497138232175,-0.011676994869819175,-0.036337962524249759,-0.019479076374894708,-0.013358926804091967,-0.007156087505839581,-0.004151396545944157,0.015573859713896009,-0.020597848224158795,-0.5723004476231738,-0.1902993363240013,0.6392584109537493,0.4738725875918302,0.21485836783419827,0.2907832175936794,0.11257803687209446,-0.1528775122056164,-0.02772087457476325,-0.05394503662436452,-0.09185632155369869,0.21536595845667423,-0.11244051774776721,0.0819607004762413,-0.08789589077435579,0.5561681186864453,-0.09238391826138862,-0.017745506368452847,-0.17042345889971978,-0.17780651415990343,1.1195790401458564,-0.20518073967113083,-0.04075596654396329,-0.5351361451122489,0.12121597360084262,0.5054430569451642,-0.29503716135907528,0.058096201193777969,0.29675601633472289,-0.004940676814235593,0.0023271511899934686,-0.04167715946664821,0.7462394293935324,0.3093870241442089,-0.25870513707480188,0.26970272673913739,0.044632408684701859,0.004379149690511547,-0.01158372901792315,-0.013787183758520283,-0.01759191806138151,0.043419737145790327,0.009785046914603564,0.007972215973625016,-0.022415433404571359,-0.021569162970828755,-0.009310849289844747,-0.007398328558816026,0.0019330365735238404,-0.009489277030618701,-0.018133366286707324,-0.019214694525835145,0.014298484478707708,-0.04055974129079595,0.4959909494408628,0.281748604047396,-1.2983662394525122,0.15144307005085343,-0.2523143474204053,0.766155451301392,-0.16751605351677735,-1.2031049031806667,-0.2780650133863356,-0.06407514330510654,-0.9575635400944031,0.6322742475278633,0.5132194657246476,-0.16678700888607418,-0.5669666351450657,0.15780427826342209,0.02610764086048521,-0.031372814749863298,-0.35773142659141707,-0.041841077750128807,0.3302236319729009,0.2973419581187923,0.05038340071244602,0.1455474698308865,0.09868388206089729,-0.07429755490231976,0.06539370437408529,-0.0431650137448663,-0.06753897792016649,0.09042786993694072,-0.06752706583204861,0.12127541583623046,-0.08939810554418304,0.39034065083420269,-0.040597909776866999,-0.014865123063764892,0.01568909419965634,0.007440784982151027,0.0038665626004971409,-0.0005834078146575342,0.010505201148249098,-0.012102968841110944,-0.004708541499879298,-0.026878139294669404,0.007953947315367834,0.0174779390315572,-0.01075233020848106,0.0033274355015435388,-0.0025783517796481014,-0.03782913228268779,-0.012042878417520517,-0.005734071784848952,0.0003384036508844476,-0.01223688696267162,-0.031747531135090756,0.3251205624559033,0.09287857648668113,-0.1803240051285971,-0.17412390144079255,-0.3370723628008414,0.08160661313395606,0.015470869447916605,-0.24507126888815426,0.09249904345065024,0.03275273904645158,-0.22789810120354574,-0.021179142236037036,-0.04195541698416272,0.12842901912832309,-0.02303487839669422,0.10277114072012332,0.04271255069237952,-0.0011563377743219364,-0.018768806791289787,-0.0032821193438810185,-0.049769388043475078,-0.01877121410500176,-0.022533140674015317,-0.012233665456378732,0.01316015649261482,-0.0031186403917543555,-0.0019944912454466715,-0.01876912199700827,-0.00930955624024787,-0.00960088480499809,-0.012846007417331352,0.005954583838986308,-0.01149958828171768,-0.04857023022447078,-0.00492676881520246,-0.022859881666260186,-0.0360846447582548,-0.005888190400676078,-0.010523274051862068,-0.003812317012264809,0.006808559316129963,-0.01806224106841847,-0.02414569619188348,-0.00520319525253004,-0.007984876339042879,-0.029941952524768904,-0.010272062250069382,-0.04839369585276175,-0.009747728390592075,-0.006320209990486304,-0.015378601441397007,0.011995926969495532,-0.03511587567512943,0.5357931003211879,0.5623438664929807,-0.007866326568902281,-0.4152577455639302,-0.3752295929478651,-0.05458966106251599,-0.5052248025888622,-0.27429073763432368,0.10864752429790142,-0.5193353825222046,-0.2608250952816881,0.6827447775459559,0.04190172285222032,0.8225318277126434,0.3226034609025808,0.10665463090335697,-0.18795352425810747,0.23162907316322785,-0.3914896275047985,0.2869372739199407,-0.7801665042336581,0.3701942907127585,-0.17412255475857464,-0.1672922983748664,0.1242826425457783,-0.33212080720997586,-0.21515228925532912,0.2618189532353889,-0.07918715157046102,-0.8394953210965499,0.36885795789736039,0.31735577991944888,-0.9296220366700368,0.02218672229173812,-0.5164729387738042,0.3253051568946866,0.32290094812913258,0.1932365966185353,0.6412222467120731,-0.3971377713725899,-0.04883655841801929,-0.1723158929220119,-0.3173280052895555,0.15044317675797323,-0.42569237055975298,-0.3111261452112973,-0.06921472359906865,0.6255228256158157,0.2110543086442681,0.47933837626501976,0.7470672176984873,0.23673087115336714,-0.3068025953640521,0.298681545232163,-0.004787223423096288,-0.013259715593602699,-0.008151637086345585,-0.0045097927539392329,-0.013807143109231753,0.00793267844096328,-0.023471438319328194,-0.032568516959188709,-0.0014249231931733895,0.006684256606152413,-0.0023399669790523716,-0.0020667302553523654,-0.0011991434141412484,0.00040766656044972807,0.008367971706143157,-0.007384206178401365,-0.0474202644740287,0.007264553747471906,-0.4409813178224313,-0.573565722185786,-0.4660527357198953,0.7303236229632794,0.11140636435892251,0.5377735972411789,0.1768518684163318,-0.18584058272173138,1.0969301167000579,0.11807310037297075,-0.047855118381158929,0.36517171452373217,0.13474497164766029,0.20060139069039177,-0.8080318848758814,0.4192625006596663,0.029125391908584636,-0.0830204199658616,-0.1748879725843443,-0.24574916383846386,1.5217672653307693,-0.3515938981679988,0.3669991170005338,-0.6318131748373558,0.37956768857498537,0.8700079788589592,-1.053192040472227,0.3594345844942529,0.5467125551196309,-0.508069070749089,-0.0887130162447901,-0.6677557794678249,1.107622249579114,0.09069929598882107,-0.10927789941382713,0.238126964669815,-0.004719979156575659,-0.0038077783772578609,0.0031138872978528659,-0.005350613567947365,-0.012805353653338296,0.0028338952982832419,-0.004329110483113207,-0.014791026140255308,-0.015714837711186825,-0.030701675802553689,-0.02237639172917494,0.01004884494942751,-0.019024841734008144,0.004967628685251147,0.02658911578988558,-0.010323115383390341,-0.011769484722855514,0.0020745820895149075,-0.004933341627867941,0.015210376105661974,0.01927746380975418,-0.025174117616138505,0.013271765295026505,-0.042952829981311769,-0.012939601484935728,0.01109389146043105,0.014671115980353733,-0.015619600042451965,-0.00754782212710684,-0.026918441143891655,-0.02658916422948463,-0.0009470435253711016,-0.005235238544420874,-0.0014707865634244072,-0.007853221058164084,0.015530225016088423,0.08863119541150673,0.015808035654660637,-0.045844718961654758,-0.23382690596600884,0.11555572446447082,-0.156529088577538,0.0642500981960179,0.19994831921788579,-0.34520827319247857,0.14809248810801085,0.16891787256016273,-0.24929318488995917,0.025223086080032626,-0.2199149875344145,0.12675156383439246,-0.20544257090935834,0.11613197443716542,0.05860368694315257,-0.0684442765846435,0.34441191429350395,-0.12280737586229984,-0.04354015639130867,-0.16566486824908795,-0.21285071801181036,0.0740323314604302,-0.07234645264770706,-0.13429740507613503,0.08958236938324014,-0.005640097233571571,-0.21602475160852517,-0.021969960036271629,-0.025142283092936494,-0.016040018950188516,-0.0161364855611225,0.15834307438599169,-0.012815507584788246,-0.028026956363641055,-0.0021113656962853139,-0.0063244394688319609,-0.007514150811362927,-0.0017733170201590387,-0.0008579535932821594,-0.008071273754519685,0.012402202913404263,-0.021182342782440197,-0.021212729368960474,0.006521075861471688,-0.02240470156662512,-0.005645840060607011,-0.007271118057110797,0.014092641623834645,-0.017716719335261464,-0.017920515182337665,-0.013499296315637313,-1.7585680089406613,-0.44414154825851478,1.8334591213388459,2.236485404946823,-1.104899360761353,0.9044000184450176,0.1521749894064704,-2.2804584583905318,0.04245835556901682,0.0015242177871314248,-1.3433904412556315,-1.4321161801193172,0.3648380251808306,0.7288356995133136,-1.0957290101272553,0.010066174072950773,0.0991658969788592,0.4587975753035833,0.03907045558123311,-0.026835311104865424,-0.016249674140765149,-0.0438734721292769,0.021074754320236159,0.018641743247586566,-0.05538043330954209,0.025285344092191427,0.0031590192206675659,-0.03515332491539908,0.024332324580387988,0.01320748110675828,-0.040732243495358647,0.030115469239804968,0.02671381205709068,0.01571434221313861,0.008755575915638664,-0.017755881728079575,-0.031765942335670638,-0.005549240113345941,0.021033956078138229,-0.04608434219746323,0.010243269968776704,0.00779805489999937,-0.030527303769683144,0.004758293684330559,0.020447881370100897,-0.007056486872480613,0.02524231965494784,0.006136366847073434,-0.04399126754022144,0.053119510537913017,-0.011585767007089946,0.008867531003254758,0.00509821850719923,-0.02857033244482754,0.6367423745069352,0.4695532211227801,-1.4335009152910577,0.6500495491571211,0.12272358642108425,0.21531025569508684,0.36682806356022648,0.3835462977193742,-0.6533793059372951,0.8181407609941391,0.23891986206926264,-0.6863507600572698,1.8989344627278549,-0.13601255052606182,-0.0000984468303358208,0.07112487576024665,-0.9091742301124878,-1.2800543334640005,0.20576839792848193,-0.6029684595811682,0.6096273145868398,-0.861213680820489,0.19826443741087655,-0.27108888392694599,-0.27913667332108008,0.31491542322352736,-0.2867492722048411,-0.1787277384349383,0.15268114037345044,0.04674913602641964,-0.7864281509679679,-0.43792481503316929,0.5170738566439099,-0.4737050601917519,0.3094465737088861,0.6944418936747573,-0.3921691659595357,0.915924970739437,0.26738239933671228,-0.06375163009763269,-0.4325941943130343,-0.7056538821426786,0.33760080609966167,-0.053680729666114,-0.33536747987844409,0.20579023202326025,0.09981724636896786,-0.6718532593950272,-0.16476071477116026,-0.022442601435547425,0.07073230622805145,0.151190904985684,0.3423718009591402,0.01865902139227841,0.3995513819883042,-0.19373323335512827,-0.09925859884925437,-0.5983044436201749,0.3022112062156341,-0.24962072639901429,-0.050782698555603609,0.532439919404,-0.5535244753505607,0.1947409952857285,0.3006978545079853,-0.2840320911622725,0.09235994690474506,-0.42788586172360967,0.4143627428272118,-0.46085486840250958,-0.050537548974239749,0.1330132424525548,-0.1817173131057184,-0.6973165335847877,0.8715745671237325,-0.09418998024979215,0.27118699137158189,-0.3690449425278993,0.27342444942993895,0.7988647922478378,-0.11000363706365929,0.27565361896812576,0.5244973257306316,-0.13739384439777906,0.05877917413588637,-0.3790470121394939,0.5787347911754911,0.13629149168344979,-0.20492596911281556,0.15363351315297564,0.6275797668119107,-0.994747954397954,-3.9136553918490599,-0.8316803081065822,0.06821162508595903,-0.3791363251368298,0.5724880874186432,0.5540442982103583,0.35484358273421148,0.8055749900673931,0.5222728494642764,0.6982909939412496,0.415656987979362,-1.4468584189175767,-0.6554097136654378,0.2764969112908821,0.04472482805977695,0.4344622763334791,0.021895296906795839,-0.3609885204593128,0.7312789890675514,-0.2626007510124781,0.2975517712067776,-0.2988106988591046,0.16770459880615394,0.6054361142808217,-0.4415230616663266,0.21339341348179237,0.4097636776275832,-0.16776299943077514,0.07473423571809718,-0.36079932618082036,0.6313664022339893,0.011564709539511869,-0.15490195892310502,0.1497975613573669,-0.1505243319726405,-0.7188153891870641,0.04852742391567932,0.9371528058762476,0.11428688054133993,1.0045661324817979,-0.10219944336804585,-0.690965806778382,0.7499601182037173,-0.14057967211918713,-0.48504665205474048,0.6926093122927074,0.2790609011381624,0.4069611136194637,-0.5007030115395416,0.12314263307454378,-0.27448389488368088,0.09028044302401235,0.29363071667219955,-1.3584574980410067,0.3903541801642946,-0.6746419549839658,1.0276225671843036,-0.12795705723048096,-0.1961483234101069,1.4454762011400433,-0.3478283019033973,0.1813587875981669,0.9147567553791044,-0.09894930646454471,0.16928159022365472,-0.04896671866570373,0.6470132176568975,-1.1378782840240272,-0.5695032045821366,0.8068623069150879,-0.26779787146963937,0.1767403867190016,0.04803086192933323,0.37252898795858216,-0.04617782252594608,0.39185073173929615,-0.05574887395655562,-0.5794855909622813,-0.022865520973877445,-0.09098937245994549,-0.3751100301904436,0.07781398657393271,0.024515817427296629,0.11744576059903676,-0.33640264158837099,0.12112223742566475,0.1202641194640732,-0.07397833911951142,-0.2966825773309565,1.165080670092682,-0.5031853107646959,0.36060840862670487,-0.8151601506540528,-0.3477926328199107,0.25550323037279545,-0.7971128094378907,0.21736960522551983,0.0937716723326331,-0.42528210709122446,-0.3005339677752651,0.012480376863192724,0.20589659946396894,-0.53607242799888,0.3559391660477241,0.3726947563950551,-0.16191506438481927,-0.39089103910469438,-0.7531618626566197,-0.2448368694734862,0.3525917879787917,0.11639827683917829,0.07725070477415185,-0.023049448161825006,0.21609658351705353,0.7555441067249271,0.08327238502079297,0.2166450313977415,0.07728428234309909,0.2706375945213946,0.2164492329839802,-0.4316078523436662,0.10796470295305266,-0.4589016688721298,0.04698209086188169],"biases":[0.47606599931137957,0.721412321555027,0.0,-0.05639166445476087,-0.0023262282104650206,0.06822793120115171,-0.37166037485070665,0.002022625501312125,2.303627253556947,-0.012880776607320849,-0.006037438601169532,0.46853306736666119,0.0,0.0,0.37900005655993077,0.5781965832553905,-0.2408047222925013,0.0,0.621575542962136,-0.8053654986802079,-0.017061179505587045,0.012381465773066862,0.3012644036814265,0.46450725330849426,-0.16720303481937985,2.262282718725603,-0.006661252421259975,0.029727428035655258,-2.8791949301293737,1.5408301310331548,0.6794565445003703,0.3819972695149223,-0.6482534083727062,3.2154534913318368,-0.5779411225078089,0.6939409997847063,-1.075254784543954,0.6438928388370933,1.412040363817916,-0.11372361079826615],"activationType":2},{"weights":[0.3601238311758831,1.0483051404652904,-0.011695752576555549,0.011105770614059015,-0.003995572041241959,-0.7425589759343114,-1.0869238886637274,0.0013146402839742174,0.6404252738424358,-0.41086602642686,0.006749042010035834,0.12376908821567372,0.0065879450333653989,0.0017595867828633257,-0.501216990487634,1.0473480433756209,-1.1196212335452843,0.001283187382910837,0.10367598182181209,-1.1695134108611634,-0.010016698583579145,-0.020902850213181634,0.23702873661968647,0.2819573694334109,0.0006201122421819643,0.19078153302315166,-0.004843316043601422,0.010461748569367139,0.26363208086529707,0.17726981205963963,0.27478214003733267,0.33159575319776898,-0.9649098161110337,1.4959538379820825,-0.7347951512354721,-0.2703224892604976,-0.13759295391471886,0.013182446667428055,0.6861764477628805,-0.1782936597195794,-0.19441792100376513,0.0579464997991285,-0.003284767962871836,-0.0003153472620622103,-0.0023829713084858367,0.16872343522764764,0.12174233541832899,-0.018629003085544137,-0.3750230668753994,0.0989664296632643,0.01880150339654683,-0.4401168604698169,-0.0030002924739632186,-0.0014824115654741883,-0.09789173477302446,-0.29274458888356288,-0.08192988888210874,0.0020730354798775428,1.1718407666560174,-0.3585043195803866,-0.016518990470111858,-0.002930483043215255,-0.25648542244509189,-0.4105234729365663,0.001301514670302314,-0.35857387243941976,-0.008239591705766924,0.016596426525512656,0.12900086207983825,-0.048536089120510928,-1.0132820355720494,-0.18206629419691515,0.5995270793093036,0.848015601769605,0.11488239648491568,0.9413912468548636,0.7570694242380385,-0.23582614498823216,-0.9502664501751634,1.0774609714004629,-0.03633751164688826,-1.6570541355687343,-0.0057339052652404828,-0.015260577609473884,0.00012325224931144016,0.1319498262534156,0.9002154928216436,0.0030290975195190218,-0.010312726479020845,0.045149156041859959,0.005904666278949764,0.3713600581538501,-0.00037386119553648963,0.015996755544519037,-0.48262075503958276,-0.9934316418335922,0.21387527182107203,-0.0058241459884358789,-0.6118096178258364,1.6626721824799447,-0.0035785587251344695,-0.020215800650743664,0.3718338486043592,0.17898430000443145,0.009600739087731396,-2.6839163184988039,-0.05656593174492454,-0.05914205320034466,1.0905244179680905,0.788740019319494,0.7820617585233964,0.41194462637036258,0.8659631194036626,1.1891527090422296,0.8121709424789019,-1.0049449305513903,0.4715166320532371,-0.3592787319577974,-0.25967923819432567,-0.7045753156825912,0.18130392060734905,0.9007047889222519,0.010042454150043089,0.0049059817148362429,-0.00002618524147179602,0.3919051789980639,0.6482351917254662,-0.0003025132139404099,-1.8969419163850179,0.27068851442357569,0.013622276759835135,0.334228111170441,-0.020381946962991318,-0.01325682539665544,-0.3054821392369497,0.47659219589343995,0.058854477691451519,-0.009571177574004905,-0.008339489034172939,0.9358300469091609,0.0017961059200042695,0.01801338776275326,0.11581218123073703,0.24175674290841854,-0.022367574959209548,1.6570231557414046,0.01782397173147001,0.004066904199939902,-1.1936646211160267,-0.8941730634004006,0.9729908650327183,-0.2523660423558049,0.4642925576705016,-2.399000577586247,0.34231462278023447,-0.5576491696594458,-1.0560197001813972,-0.003966857849452018,0.5069496053147929,0.10203170533271781,-0.18520456411122869,-0.11743134374145276,-0.007046100510568623,-0.008656941026533406,-0.010925856414197168,0.5595639262700086,-0.535831261800741,0.00294626896747856,0.8535225603996326,0.24148718367298395,-0.0003625706216464527,-0.40923508282315726,0.004072498964064491,0.002733064717618525,-0.16577151755419534,-0.1310269105655806,-0.029072273446058978,0.01019955892766134,0.3135528482414188,-0.38276535480295867,-0.02618094420922737,0.01761562918357104,-0.1646169903277155,-0.27418634536996197,-0.011560937051232814,1.268463272993905,0.0003633394834551559,-0.0010705730813076484,-0.13512225358195077,-0.08776200854597904,-0.7777552104958297,-0.15173152440656016,-0.547110316066958,-0.5196917003122391,-0.26854696376805306,1.0586271617347674,-0.29110120379537526,0.5736237526102386,-0.3807917204864725,-0.253871031327117,-0.09951364271900887,-0.19418190697490324,0.00226470213025213,0.018591048966847179,0.008448058699826705,-0.38273028588269827,0.04528653625662636,-0.005763199011876355,0.8951792786798849,-0.19317758266152686,-0.014436276908052631,0.11025781865298243,-0.008979790990490646,-0.0009785992581840876,1.5279675079683366,-0.07695013072815905,1.0770764321064992,-0.0057264438037858459,-0.7733839167016554,-0.5426118141988454,-0.0009825351063910578,0.021850814791886644,-0.22860785292597847,0.06870677335688866,-0.004699315677306976,0.009018969132854995,0.07892800746818703,0.06357727078671535,-0.07217939168185045,0.08566215469575278,-0.023084638810379505,-0.09636330305424984,-0.3434195087213373,-0.46861294915212978,-0.18135137340488442,-0.11648456763441587,0.3089848511717266,0.06275854765393382,0.5406682897790207,-0.009063490875290008,-0.051399754141981158,-0.04119652720230943,-0.007643789229516644,-0.0007817745901004772,-0.018343563235991273,-0.11696748437164836,-0.1291236662283175,-0.020156715603936036,-0.07631351157846811,-0.0970643420439554,-0.006420704385090214,-0.06979731625690688,0.00527086606157517,-0.018313345857906325,-0.037497911856481828,-0.019157471403769414,-0.10939413753608149,0.01218897601974784,-0.1826351696832191,-0.11275948811520632,-0.00030029645004890567,0.01253795783199862,-0.0635849553831564,-0.0729761586773899,0.005046910941853846,-0.12171637067241818,-0.0026807576146151417,-0.017865793845353255,-0.046095879932221018,-0.028973602136146079,-0.2092182314627533,-0.059948612586642708,-0.08921089804771694,-0.1337230799151842,-0.08628070132646884,-0.06434309910759553,-0.06563435360491749,-0.041815580131897529,-0.12822695326299006,-0.030401841493107309],"biases":[0.7964063320970339,-0.5227093482565389,-1.2340689936920489,1.9247620047226025,-0.14383568982698573,-0.06909598873128664,-0.7514583163127572],"activationType":4}],"costFunctionType":1}